<?xml version="1.0"?>
<opencv_storage>
<stage9>
  <maxWeakCount>49</maxWeakCount>
  <stageThreshold>-1.5480906963348389e+00</stageThreshold>
  <weakClassifiers>
    <_>
      <internalNodes>
        0 -1 128708 1.4296434819698334e-01</internalNodes>
      <leafValues>
        -7.1328872442245483e-01 1.</leafValues></_>
    <_>
      <internalNodes>
        0 -1 39785 2.2554227709770203e-01</internalNodes>
      <leafValues>
        -2.7660056948661804e-01 8.9532211422920227e-02</leafValues></_>
    <_>
      <internalNodes>
        0 -1 114999 1.9811769016087055e-03</internalNodes>
      <leafValues>
        -8.8758066296577454e-02 2.5671663880348206e-01</leafValues></_>
    <_>
      <internalNodes>
        0 -1 126434 1.3009319081902504e-02</internalNodes>
      <leafValues>
        2.8404548764228821e-02 -8.0158668756484985e-01</leafValues></_>
    <_>
      <internalNodes>
        0 -1 24457 8.5127549245953560e-03</internalNodes>
      <leafValues>
        5.1090043038129807e-02 -4.9279826879501343e-01</leafValues></_>
    <_>
      <internalNodes>
        0 -1 24457 8.4846522659063339e-03</internalNodes>
      <leafValues>
        -1.4887934084981680e-03 8.7402939796447754e-01</leafValues></_>
    <_>
      <internalNodes>
        0 -1 24457 8.1521105021238327e-03</internalNodes>
      <leafValues>
        3.3405402209609747e-03 -7.0320469141006470e-01</leafValues></_>
    <_>
      <internalNodes>
        0 -1 71559 1.0716156102716923e-03</internalNodes>
      <leafValues>
        -9.0885214507579803e-02 2.2472189366817474e-01</leafValues></_>
    <_>
      <internalNodes>
        0 -1 28832 6.1004549264907837e-02</internalNodes>
      <leafValues>
        -4.1462961584329605e-02 5.2120238542556763e-01</leafValues></_>
    <_>
      <internalNodes>
        0 -1 152292 -5.3156632930040359e-03</internalNodes>
      <leafValues>
        1.2199281901121140e-01 -1.6277779638767242e-01</leafValues></_>
    <_>
      <internalNodes>
        0 -1 140234 3.1410970259457827e-03</internalNodes>
      <leafValues>
        -1.2962722778320313e-01 1.5980514883995056e-01</leafValues></_>
    <_>
      <internalNodes>
        0 -1 128541 -1.2758837547153234e-03</internalNodes>
      <leafValues>
        1.6087384521961212e-01 -1.1738319694995880e-01</leafValues></_>
    <_>
      <internalNodes>
        0 -1 107248 -1.4910221099853516e-02</internalNodes>
      <leafValues>
        2.0086039602756500e-01 -9.3625031411647797e-02</leafValues></_>
    <_>
      <internalNodes>
        0 -1 105974 -5.5618025362491608e-02</internalNodes>
      <leafValues>
        5.3852647542953491e-01 -5.6759513914585114e-02</leafValues></_>
    <_>
      <internalNodes>
        0 -1 139405 8.7387273088097572e-03</internalNodes>
      <leafValues>
        4.3698910623788834e-02 -5.8652573823928833e-01</leafValues></_>
    <_>
      <internalNodes>
        0 -1 83528 -1.2049502693116665e-03</internalNodes>
      <leafValues>
        2.7809655666351318e-01 -7.9923965036869049e-02</leafValues></_>
    <_>
      <internalNodes>
        0 -1 132928 5.9626176953315735e-03</internalNodes>
      <leafValues>
        4.7803949564695358e-02 -3.8157838582992554e-01</leafValues></_>
    <_>
      <internalNodes>
        0 -1 118909 6.4814835786819458e-02</internalNodes>
      <leafValues>
        -4.7185640782117844e-02 4.2013242840766907e-01</leafValues></_>
    <_>
      <internalNodes>
        0 -1 144642 1.1398714268580079e-03</internalNodes>
      <leafValues>
        -9.7678057849407196e-02 1.9687622785568237e-01</leafValues></_>
    <_>
      <internalNodes>
        0 -1 44309 -1.1804877221584320e-01</internalNodes>
      <leafValues>
        4.3027573823928833e-01 -4.4567074626684189e-02</leafValues></_>
    <_>
      <internalNodes>
        0 -1 157186 6.1408529290929437e-05</internalNodes>
      <leafValues>
        -1.5254317224025726e-01 1.3653261959552765e-01</leafValues></_>
    <_>
      <internalNodes>
        0 -1 67528 -1.0628768801689148e-01</internalNodes>
      <leafValues>
        3.7019792199134827e-01 -4.7876011580228806e-02</leafValues></_>
    <_>
      <internalNodes>
        0 -1 92584 -3.3495710231363773e-03</internalNodes>
      <leafValues>
        -7.1507883071899414e-01 2.6658853515982628e-02</leafValues></_>
    <_>
      <internalNodes>
        0 -1 114421 2.3665539920330048e-03</internalNodes>
      <leafValues>
        3.8197055459022522e-02 -4.4669911265373230e-01</leafValues></_>
    <_>
      <internalNodes>
        0 -1 19001 -8.4963753819465637e-02</internalNodes>
      <leafValues>
        -5.9848271310329437e-02 3.3453288674354553e-01</leafValues></_>
    <_>
      <internalNodes>
        0 -1 94725 -2.7033681049942970e-02</internalNodes>
      <leafValues>
        8.5460826754570007e-02 -2.6873287558555603e-01</leafValues></_>
    <_>
      <internalNodes>
        0 -1 47130 1.9123677164316177e-02</internalNodes>
      <leafValues>
        2.7576426044106483e-02 -6.3559359312057495e-01</leafValues></_>
    <_>
      <internalNodes>
        0 -1 56747 -5.1277112215757370e-03</internalNodes>
      <leafValues>
        3.1460851430892944e-01 -7.1686603128910065e-02</leafValues></_>
    <_>
      <internalNodes>
        0 -1 63623 5.0620427355170250e-03</internalNodes>
      <leafValues>
        -1.1621792614459991e-01 1.8690575659275055e-01</leafValues></_>
    <_>
      <internalNodes>
        0 -1 119344 -5.7641242165118456e-04</internalNodes>
      <leafValues>
        1.7962609231472015e-01 -1.0121882706880569e-01</leafValues></_>
    <_>
      <internalNodes>
        0 -1 96626 -4.5952502638101578e-02</internalNodes>
      <leafValues>
        -1. 1.9176572561264038e-02</leafValues></_>
    <_>
      <internalNodes>
        0 -1 137919 -1.2113487347960472e-02</internalNodes>
      <leafValues>
        -2.8221303224563599e-01 6.2146477401256561e-02</leafValues></_>
    <_>
      <internalNodes>
        0 -1 143630 -7.0116017013788223e-04</internalNodes>
      <leafValues>
        1.9183513522148132e-01 -1.0949594527482986e-01</leafValues></_>
    <_>
      <internalNodes>
        0 -1 1030 -1.2991306185722351e-01</internalNodes>
      <leafValues>
        7.6985377073287964e-01 -2.5963783264160156e-02</leafValues></_>
    <_>
      <internalNodes>
        0 -1 14073 5.2305786084616557e-05</internalNodes>
      <leafValues>
        -1.9025947153568268e-01 1.1539184302091599e-01</leafValues></_>
    <_>
      <internalNodes>
        0 -1 78097 1.4396107196807861e-01</internalNodes>
      <leafValues>
        -3.7923865020275116e-02 4.8959138989448547e-01</leafValues></_>
    <_>
      <internalNodes>
        0 -1 73143 -4.6887993812561035e-03</internalNodes>
      <leafValues>
        -3.7048813700675964e-01 4.9577962607145309e-02</leafValues></_>
    <_>
      <internalNodes>
        0 -1 125416 -2.4781291722320020e-04</internalNodes>
      <leafValues>
        1.7064255475997925e-01 -1.0512989759445190e-01</leafValues></_>
    <_>
      <internalNodes>
        0 -1 70058 -2.1783146075904369e-03</internalNodes>
      <leafValues>
        -6.3814669847488403e-01 2.7502436190843582e-02</leafValues></_>
    <_>
      <internalNodes>
        0 -1 113072 -6.8846705835312605e-04</internalNodes>
      <leafValues>
        2.2795629501342773e-01 -7.8460834920406342e-02</leafValues></_>
    <_>
      <internalNodes>
        0 -1 105412 -2.8263595886528492e-03</internalNodes>
      <leafValues>
        1.7529700696468353e-01 -1.1133234947919846e-01</leafValues></_>
    <_>
      <internalNodes>
        0 -1 159731 2.0598047412931919e-03</internalNodes>
      <leafValues>
        5.6670203804969788e-02 -3.3568608760833740e-01</leafValues></_>
    <_>
      <internalNodes>
        0 -1 80141 8.2242684438824654e-03</internalNodes>
      <leafValues>
        -5.0310492515563965e-02 4.1858822107315063e-01</leafValues></_>
    <_>
      <internalNodes>
        0 -1 138562 -1.5834614634513855e-02</internalNodes>
      <leafValues>
        1.2689408659934998e-01 -1.4243452250957489e-01</leafValues></_>
    <_>
      <internalNodes>
        0 -1 132702 -9.6278443932533264e-02</internalNodes>
      <leafValues>
        -2.8834852576255798e-01 7.4674762785434723e-02</leafValues></_>
    <_>
      <internalNodes>
        0 -1 10744 -2.3715090006589890e-02</internalNodes>
      <leafValues>
        -6.2579798698425293e-01 2.6628207415342331e-02</leafValues></_>
    <_>
      <internalNodes>
        0 -1 20387 1.9505336880683899e-02</internalNodes>
      <leafValues>
        -8.5451997816562653e-02 2.4833726882934570e-01</leafValues></_>
    <_>
      <internalNodes>
        0 -1 60312 -4.6797759830951691e-02</internalNodes>
      <leafValues>
        -5.9824860095977783e-01 3.9519350975751877e-02</leafValues></_>
    <_>
      <internalNodes>
        0 -1 22794 -3.0904496088624001e-03</internalNodes>
      <leafValues>
        -3.4742623567581177e-01 4.7820597887039185e-02</leafValues></_></weakClassifiers></stage9>
</opencv_storage>
