<?xml version="1.0"?>
<opencv_storage>
<stage15>
  <maxWeakCount>54</maxWeakCount>
  <stageThreshold>-1.4362224340438843e+00</stageThreshold>
  <weakClassifiers>
    <_>
      <internalNodes>
        0 -1 26061 -2.4231839925050735e-02</internalNodes>
      <leafValues>
        -7.1545189619064331e-01 5.7894736528396606e-01</leafValues></_>
    <_>
      <internalNodes>
        0 -1 93145 -2.5650415569543839e-02</internalNodes>
      <leafValues>
        3.8166239857673645e-01 -2.1005207300186157e-01</leafValues></_>
    <_>
      <internalNodes>
        0 -1 48210 6.9332285784184933e-04</internalNodes>
      <leafValues>
        -1.5609797835350037e-01 1.1287926137447357e-01</leafValues></_>
    <_>
      <internalNodes>
        0 -1 29515 -8.8645319920033216e-04</internalNodes>
      <leafValues>
        -4.0104004740715027e-01 4.3001048266887665e-02</leafValues></_>
    <_>
      <internalNodes>
        0 -1 29515 -8.8347645942121744e-04</internalNodes>
      <leafValues>
        9.0107637643814087e-01 -1.8020218703895807e-03</leafValues></_>
    <_>
      <internalNodes>
        0 -1 29515 -8.3273544441908598e-04</internalNodes>
      <leafValues>
        -7.2519570589065552e-01 2.7480428107082844e-03</leafValues></_>
    <_>
      <internalNodes>
        0 -1 113081 -9.7669265232980251e-04</internalNodes>
      <leafValues>
        1.9359475374221802e-01 -8.2772828638553619e-02</leafValues></_>
    <_>
      <internalNodes>
        0 -1 141456 1.4229195192456245e-02</internalNodes>
      <leafValues>
        3.2118357717990875e-02 -9.1896760463714600e-01</leafValues></_>
    <_>
      <internalNodes>
        0 -1 4688 -3.5425776243209839e-01</internalNodes>
      <leafValues>
        -8.2602936029434204e-01 2.1977396681904793e-02</leafValues></_>
    <_>
      <internalNodes>
        0 -1 70112 -3.4268271178007126e-02</internalNodes>
      <leafValues>
        -6.5843278169631958e-01 1.7023833934217691e-03</leafValues></_>
    <_>
      <internalNodes>
        0 -1 94488 6.8329349160194397e-02</internalNodes>
      <leafValues>
        -6.5593063831329346e-02 2.4468967318534851e-01</leafValues></_>
    <_>
      <internalNodes>
        0 -1 124012 -4.1534975171089172e-02</internalNodes>
      <leafValues>
        2.3288121819496155e-01 -7.6216079294681549e-02</leafValues></_>
    <_>
      <internalNodes>
        0 -1 136249 -2.8917450457811356e-02</internalNodes>
      <leafValues>
        -3.8530641794204712e-01 5.1040757447481155e-02</leafValues></_>
    <_>
      <internalNodes>
        0 -1 140046 -4.1456981562077999e-03</internalNodes>
      <leafValues>
        2.4127306044101715e-01 -8.6365103721618652e-02</leafValues></_>
    <_>
      <internalNodes>
        0 -1 15943 -1.3043580949306488e-01</internalNodes>
      <leafValues>
        -8.6119216680526733e-01 1.0670551098883152e-02</leafValues></_>
    <_>
      <internalNodes>
        0 -1 13386 2.0943827927112579e-02</internalNodes>
      <leafValues>
        3.5770360380411148e-02 -4.7036293148994446e-01</leafValues></_>
    <_>
      <internalNodes>
        0 -1 60521 3.4428951330482960e-03</internalNodes>
      <leafValues>
        5.9651214629411697e-02 -2.6746654510498047e-01</leafValues></_>
    <_>
      <internalNodes>
        0 -1 15462 9.3283038586378098e-03</internalNodes>
      <leafValues>
        -8.3928778767585754e-02 1.9359233975410461e-01</leafValues></_>
    <_>
      <internalNodes>
        0 -1 29528 -2.3453384637832642e-03</internalNodes>
      <leafValues>
        3.3534857630729675e-01 -6.0683105140924454e-02</leafValues></_>
    <_>
      <internalNodes>
        0 -1 8901 -1.4855426270514727e-03</internalNodes>
      <leafValues>
        -2.9477927088737488e-01 6.3456602394580841e-02</leafValues></_>
    <_>
      <internalNodes>
        0 -1 806 -4.2521691322326660e-01</internalNodes>
      <leafValues>
        4.9612665176391602e-01 -3.6087978631258011e-02</leafValues></_>
    <_>
      <internalNodes>
        0 -1 28295 1.7658943310379982e-02</internalNodes>
      <leafValues>
        -2.0980770885944366e-01 1.0223317891359329e-01</leafValues></_>
    <_>
      <internalNodes>
        0 -1 20750 8.5939571261405945e-02</internalNodes>
      <leafValues>
        4.0377158671617508e-02 -4.5264127850532532e-01</leafValues></_>
    <_>
      <internalNodes>
        0 -1 157604 -1.7464038683101535e-03</internalNodes>
      <leafValues>
        -8.7862306833267212e-01 1.4196923933923244e-02</leafValues></_>
    <_>
      <internalNodes>
        0 -1 86747 -1.3582633808255196e-02</internalNodes>
      <leafValues>
        8.6160659790039063e-01 -2.5294505059719086e-02</leafValues></_>
    <_>
      <internalNodes>
        0 -1 9 1.0796785354614258e-03</internalNodes>
      <leafValues>
        5.7331193238496780e-02 -2.9103606939315796e-01</leafValues></_>
    <_>
      <internalNodes>
        0 -1 9 -1.0805861093103886e-03</internalNodes>
      <leafValues>
        -2.9644870758056641e-01 5.7790637016296387e-02</leafValues></_>
    <_>
      <internalNodes>
        0 -1 142153 4.3752067722380161e-04</internalNodes>
      <leafValues>
        -8.9464016258716583e-02 2.0704515278339386e-01</leafValues></_>
    <_>
      <internalNodes>
        0 -1 11750 3.8548443466424942e-02</internalNodes>
      <leafValues>
        -6.4729675650596619e-02 2.5718012452125549e-01</leafValues></_>
    <_>
      <internalNodes>
        0 -1 143731 1.0226718150079250e-03</internalNodes>
      <leafValues>
        -5.2248872816562653e-02 3.3406692743301392e-01</leafValues></_>
    <_>
      <internalNodes>
        0 -1 138907 4.1331592947244644e-03</internalNodes>
      <leafValues>
        2.9526455327868462e-02 -6.6175961494445801e-01</leafValues></_>
    <_>
      <internalNodes>
        0 -1 145751 9.7266258671879768e-04</internalNodes>
      <leafValues>
        -8.9595019817352295e-02 1.8873888254165649e-01</leafValues></_>
    <_>
      <internalNodes>
        0 -1 97889 3.3290073042735457e-04</internalNodes>
      <leafValues>
        -8.5229173302650452e-02 1.9738411903381348e-01</leafValues></_>
    <_>
      <internalNodes>
        0 -1 87879 -1.3092841953039169e-02</internalNodes>
      <leafValues>
        9.6421681344509125e-02 -2.3586937785148621e-01</leafValues></_>
    <_>
      <internalNodes>
        0 -1 105361 1.2431254610419273e-02</internalNodes>
      <leafValues>
        -1.0434066504240036e-01 1.6137091815471649e-01</leafValues></_>
    <_>
      <internalNodes>
        0 -1 5487 -1.0436781682074070e-02</internalNodes>
      <leafValues>
        -2.3469705879688263e-01 7.4145331978797913e-02</leafValues></_>
    <_>
      <internalNodes>
        0 -1 33314 -1.5112184919416904e-03</internalNodes>
      <leafValues>
        1.5142385661602020e-01 -1.2952610850334167e-01</leafValues></_>
    <_>
      <internalNodes>
        0 -1 132230 -1.6010543331503868e-02</internalNodes>
      <leafValues>
        -6.0154265165328979e-01 2.6419358327984810e-02</leafValues></_>
    <_>
      <internalNodes>
        0 -1 4700 3.3552505075931549e-02</internalNodes>
      <leafValues>
        -4.8710584640502930e-02 3.8830232620239258e-01</leafValues></_>
    <_>
      <internalNodes>
        0 -1 138120 -1.6967756673693657e-02</internalNodes>
      <leafValues>
        -3.2740946859121323e-02 4.8390147089958191e-01</leafValues></_>
    <_>
      <internalNodes>
        0 -1 20276 -1.7631904920563102e-03</internalNodes>
      <leafValues>
        1.9479727745056152e-01 -8.6520507931709290e-02</leafValues></_>
    <_>
      <internalNodes>
        0 -1 86269 1.2745393905788660e-03</internalNodes>
      <leafValues>
        -5.1401592791080475e-02 3.3029285073280334e-01</leafValues></_>
    <_>
      <internalNodes>
        0 -1 161824 1.7903417348861694e-02</internalNodes>
      <leafValues>
        2.1805595606565475e-02 -7.4466818571090698e-01</leafValues></_>
    <_>
      <internalNodes>
        0 -1 154642 1.0303040035068989e-03</internalNodes>
      <leafValues>
        -5.2469432353973389e-02 3.2682409882545471e-01</leafValues></_>
    <_>
      <internalNodes>
        0 -1 146939 2.0722034387290478e-03</internalNodes>
      <leafValues>
        -1.1378481984138489e-01 1.5489208698272705e-01</leafValues></_>
    <_>
      <internalNodes>
        0 -1 137331 -1.8963448703289032e-02</internalNodes>
      <leafValues>
        2.3653678596019745e-01 -7.5436472892761230e-02</leafValues></_>
    <_>
      <internalNodes>
        0 -1 42219 1.3178080320358276e-01</internalNodes>
      <leafValues>
        -6.5335370600223541e-02 2.7113962173461914e-01</leafValues></_>
    <_>
      <internalNodes>
        0 -1 110177 3.4007723443210125e-03</internalNodes>
      <leafValues>
        2.7391614392399788e-02 -6.2507146596908569e-01</leafValues></_>
    <_>
      <internalNodes>
        0 -1 139237 5.2511325338855386e-04</internalNodes>
      <leafValues>
        5.9324357658624649e-02 -2.4965593218803406e-01</leafValues></_>
    <_>
      <internalNodes>
        0 -1 134774 -4.0427558124065399e-03</internalNodes>
      <leafValues>
        7.2172814607620239e-01 -2.5012919679284096e-02</leafValues></_>
    <_>
      <internalNodes>
        0 -1 140271 1.8985170871019363e-02</internalNodes>
      <leafValues>
        -2.9229113832116127e-02 4.9959492683410645e-01</leafValues></_>
    <_>
      <internalNodes>
        0 -1 129940 -1.4753906056284904e-02</internalNodes>
      <leafValues>
        2.0839948952198029e-01 -8.6942471563816071e-02</leafValues></_>
    <_>
      <internalNodes>
        0 -1 126520 -1.9066415727138519e-02</internalNodes>
      <leafValues>
        -1.7236290872097015e-01 1.0757534205913544e-01</leafValues></_>
    <_>
      <internalNodes>
        0 -1 111305 1.5190800651907921e-02</internalNodes>
      <leafValues>
        4.5546352863311768e-02 -4.0882021188735962e-01</leafValues></_></weakClassifiers></stage15>
</opencv_storage>
